net
{
	propagationenginegenerator1791944048146838126L = "edu.ucla.belief.approx.BeliefPropagationSettings@36500958";
	recoveryenginegenerator6944530267470113528l = "edu.ucla.util.SettingsImpl@40958c43";
	node_size = (130.0 55.0);
}

node dst_bytes
{
	states = ("zero" "greater0" );
	position = (15 -185);
	diagnosistype = "AUXILIARY";
	csitype = "unknown";
	DSLxSUBMODEL = "Root Submodel";
	ismapvariable = "false";
	ID = "variable0";
	label = "dst_bytes";
	ishiddenvariable = "false";
	DSLxEXTRA_DEFINITIONxDIAGNOSIS_TYPE = "AUXILIARY";
	excludepolicy = "include whole CPT";
}
node classification
{
	states = ("smurf" "normal" "neptune" "back" );
	position = (223 -417);
	diagnosistype = "AUXILIARY";
	DSLxSUBMODEL = "Root Submodel";
	ismapvariable = "false";
	ID = "variable4";
	label = "classification";
	DSLxEXTRA_DEFINITIONxDIAGNOSIS_TYPE = "AUXILIARY";
	excludepolicy = "include whole CPT";
}
node srv_diff_host_rate
{
	states = ("greater0less05" "greatereq05less1" "zero" "one" );
	position = (425 -257);
	diagnosistype = "AUXILIARY";
	ismapvariable = "false";
	ID = "variable1";
	label = "srv_diff_host_rate";
	DSLxEXTRA_DEFINITIONxDIAGNOSIS_TYPE = "AUXILIARY";
	excludepolicy = "include whole CPT";
}
node srv_rerror_rate
{
	states = ("greater0less05" "greatereq05less1" "zero" "one" );
	position = (387 -5);
	diagnosistype = "AUXILIARY";
	ismapvariable = "false";
	ID = "variable1";
	label = "srv_rerror_rate";
	DSLxEXTRA_DEFINITIONxDIAGNOSIS_TYPE = "AUXILIARY";
	excludepolicy = "include whole CPT";
}
node protocol
{
	states = ("icmp" "tcp" "udp" );
	position = (30 -333);
	diagnosistype = "AUXILIARY";
	DSLxSUBMODEL = "Root Submodel";
	ismapvariable = "false";
	ID = "variable3";
	label = "protocol";
	DSLxEXTRA_DEFINITIONxDIAGNOSIS_TYPE = "AUXILIARY";
	excludepolicy = "include whole CPT";
}
node rerror_rate
{
	states = ("greater0less05" "greatereq05less1" "zero" "one" );
	position = (423 -157);
	diagnosistype = "AUXILIARY";
	ismapvariable = "false";
	ID = "variable1";
	label = "rerror_rate";
	DSLxEXTRA_DEFINITIONxDIAGNOSIS_TYPE = "AUXILIARY";
	excludepolicy = "include whole CPT";
}
node count
{
	states = ("greater0lesseq10" "greater10lesseq20" "greater20lesseq30" "greater30lesseq40" "greater40lesseq50" "greater50lesseq60" "greater60lesseq70" "greater70lesseq80" "greater80lesseq90" "zero" "greater100" );
	position = (303 -75);
	diagnosistype = "AUXILIARY";
	ismapvariable = "false";
	ID = "variable2";
	label = "count";
	DSLxEXTRA_DEFINITIONxDIAGNOSIS_TYPE = "AUXILIARY";
	excludepolicy = "include whole CPT";
}
node srv_count
{
	states = ("greater0lesseq10" "greater10lesseq20" "greater20lesseq30" "greater30lesseq40" "greater40lesseq50" "greater50lesseq60" "greater60lesseq70" "greater70lesseq80" "greater80lesseq90" "zero" "greater100" );
	position = (93 -35);
	diagnosistype = "AUXILIARY";
	DSLxSUBMODEL = "Root Submodel";
	ismapvariable = "false";
	ID = "variable2";
	label = "srv_count";
	DSLxEXTRA_DEFINITIONxDIAGNOSIS_TYPE = "AUXILIARY";
	excludepolicy = "include whole CPT";
}
node src_bytes
{
	states = ("zero" "greater0" );
	position = (465 -361);
	diagnosistype = "AUXILIARY";
	csitype = "unknown";
	ismapvariable = "false";
	ID = "variable0";
	label = "src_bytes";
	ishiddenvariable = "false";
	DSLxEXTRA_DEFINITIONxDIAGNOSIS_TYPE = "AUXILIARY";
	excludepolicy = "include whole CPT";
}
node diff_srv_rate
{
	states = ("greater0less05" "greatereq05less1" "zero" "one" );
	position = (250 -297);
	diagnosistype = "AUXILIARY";
	ismapvariable = "false";
	ID = "variable1";
	label = "diff_srv_rate";
	DSLxEXTRA_DEFINITIONxDIAGNOSIS_TYPE = "AUXILIARY";
	excludepolicy = "include whole CPT";
}
node same_srv_rate
{
	states = ("greater0less05" "greatereq05less1" "zero" "one" );
	position = (200 -195);
	diagnosistype = "AUXILIARY";
	DSLxSUBMODEL = "Root Submodel";
	ismapvariable = "false";
	ID = "variable1";
	label = "same_srv_rate";
	DSLxEXTRA_DEFINITIONxDIAGNOSIS_TYPE = "AUXILIARY";
	excludepolicy = "include whole CPT";
}
node serror_rate
{
	states = ("greater0less05" "greatereq05less1" "zero" "one" );
	position = (574 -212);
	diagnosistype = "AUXILIARY";
	ismapvariable = "false";
	ID = "variable1";
	label = "serror_rate";
	DSLxEXTRA_DEFINITIONxDIAGNOSIS_TYPE = "AUXILIARY";
	excludepolicy = "include whole CPT";
}
node srv_serror_rate
{
	states = ("greater0less05" "greatereq05less1" "zero" "one" );
	position = (539 -79);
	diagnosistype = "AUXILIARY";
	ismapvariable = "false";
	ID = "variable1";
	label = "srv_serror_rate";
	DSLxEXTRA_DEFINITIONxDIAGNOSIS_TYPE = "AUXILIARY";
	excludepolicy = "include whole CPT";
}
potential ( dst_bytes | classification )
{
	data = ((	1.0	0.0	)
		(	0.1459219967515779	0.8540780032484221	)
		(	1.0	0.0	)
		(	4.539264639128E-4	0.9995460735360872	));
}
potential ( classification | src_bytes srv_diff_host_rate )
{
	data = (((	0.0	0.6224489795918368	0.37755102040816324	0.0	)
		(	0.0	0.9270833333333334	0.07291666666666667	0.0	)
		(	0.0	0.03798570710335416	0.9620142928966459	0.0	)
		(	0.0	0.9965187119234117	0.0034812880765883376	0.0	))
		((	0.0	0.9909874263606788	0.0	0.0090125736393212	)
		(	0.0	0.9370629370629371	0.0	0.06293706293706294	)
		(	0.8196836165448872	0.17523988568392598	0.0	0.005076497771186861	)
		(	0.0	0.9928428761651131	0.0	0.007157123834886817	)));
}
potential ( srv_diff_host_rate | )
{
	data = (	0.04686217875077953	0.0072373387599698035	0.9312186135819083	0.01468186890734237	);
}
potential ( srv_rerror_rate | count srv_serror_rate rerror_rate )
{
	data = ((((	1.0	0.0	0.0	0.0	)
		(	1.0	0.0	0.0	0.0	)
		(	0.07643312101910828	0.0	0.9235668789808917	0.0	)
		(	0.25	0.25	0.25	0.25	))
		((	1.0	0.0	0.0	0.0	)
		(	0.0	1.0	0.0	0.0	)
		(	0.014705882352941176	0.0	0.9852941176470589	0.0	)
		(	0.75	0.25	0.0	0.0	))
		((	0.9163879598662207	0.05351170568561873	0.030100334448160536	1.11E-16	)
		(	0.10344827586206896	0.8160919540229885	0.04597701149425287	0.03448275862068972	)
		(	0.009341668684049386	0.0017942839240704612	0.9888640473918802	0.0	)
		(	0.011334076551467856	0.005574136008918618	0.0	0.9830917874396136	))
		((	0.0	0.0	1.0	0.0	)
		(	0.25	0.25	0.25	0.25	)
		(	0.0	0.0	1.0	0.0	)
		(	0.25	0.25	0.25	0.25	)))
		(((	1.0	0.0	0.0	0.0	)
		(	0.25	0.25	0.25	0.25	)
		(	0.07717041800643087	0.0	0.9228295819935691	0.0	)
		(	0.25	0.25	0.25	0.25	))
		((	1.0	0.0	0.0	0.0	)
		(	0.25	0.25	0.25	0.25	)
		(	0.5	0.0	0.5	0.0	)
		(	0.25	0.25	0.25	0.25	))
		((	0.9622641509433962	0.018867924528301886	0.018867924528301886	0.0	)
		(	0.0	1.0	0.0	0.0	)
		(	0.004312203536006899	0.0	0.9956877964639931	0.0	)
		(	0.0	0.2	0.0	0.8	))
		((	0.0	0.0	1.0	0.0	)
		(	0.25	0.25	0.25	0.25	)
		(	0.0	0.0	1.0	0.0	)
		(	0.25	0.25	0.25	0.25	)))
		(((	1.0	0.0	0.0	0.0	)
		(	0.25	0.25	0.25	0.25	)
		(	0.07079646017699115	0.0	0.9292035398230089	0.0	)
		(	0.25	0.25	0.25	0.25	))
		((	0.25	0.25	0.25	0.25	)
		(	0.25	0.25	0.25	0.25	)
		(	1.0	0.0	0.0	0.0	)
		(	0.25	0.25	0.25	0.25	))
		((	1.0	0.0	0.0	0.0	)
		(	0.0	1.0	0.0	0.0	)
		(	0.0033613445378151263	0.0	0.9966386554621849	0.0	)
		(	0.0	0.0	0.0	1.0	))
		((	0.0	0.0	1.0	0.0	)
		(	0.25	0.25	0.25	0.25	)
		(	0.0	0.0	1.0	0.0	)
		(	0.25	0.25	0.25	0.25	)))
		(((	1.0	0.0	0.0	0.0	)
		(	0.25	0.25	0.25	0.25	)
		(	0.10204081632653061	0.0	0.8979591836734694	0.0	)
		(	0.25	0.25	0.25	0.25	))
		((	1.0	0.0	0.0	0.0	)
		(	0.25	0.25	0.25	0.25	)
		(	1.0	0.0	0.0	0.0	)
		(	0.25	0.25	0.25	0.25	))
		((	1.0	0.0	0.0	0.0	)
		(	0.0	1.0	0.0	0.0	)
		(	0.0034129692832764505	0.0	0.9965870307167235	0.0	)
		(	0.0	0.0	0.0	1.0	))
		((	0.0	0.0	1.0	0.0	)
		(	0.25	0.25	0.25	0.25	)
		(	0.0	0.0	1.0	0.0	)
		(	0.25	0.25	0.25	0.25	)))
		(((	1.0	0.0	0.0	0.0	)
		(	0.25	0.25	0.25	0.25	)
		(	0.07692307692307693	0.0	0.9230769230769231	0.0	)
		(	0.25	0.25	0.25	0.25	))
		((	0.25	0.25	0.25	0.25	)
		(	0.25	0.25	0.25	0.25	)
		(	0.25	0.25	0.25	0.25	)
		(	0.25	0.25	0.25	0.25	))
		((	1.0	0.0	0.0	0.0	)
		(	0.25	0.25	0.25	0.25	)
		(	0.004024144869215292	0.0	0.9959758551307847	0.0	)
		(	0.0	0.0	0.0	1.0	))
		((	0.0	0.0	1.0	0.0	)
		(	0.25	0.25	0.25	0.25	)
		(	0.0	0.0	1.0	0.0	)
		(	0.25	0.25	0.25	0.25	)))
		(((	1.0	0.0	0.0	0.0	)
		(	0.25	0.25	0.25	0.25	)
		(	0.0	0.0	1.0	0.0	)
		(	0.25	0.25	0.25	0.25	))
		((	0.25	0.25	0.25	0.25	)
		(	0.25	0.25	0.25	0.25	)
		(	0.0	0.0	1.0	0.0	)
		(	0.25	0.25	0.25	0.25	))
		((	0.25	0.25	0.25	0.25	)
		(	0.25	0.25	0.25	0.25	)
		(	0.0	0.0	1.0	0.0	)
		(	0.0	0.0	0.0	1.0	))
		((	0.0	0.0	1.0	0.0	)
		(	0.25	0.25	0.25	0.25	)
		(	0.0	0.0	1.0	0.0	)
		(	0.25	0.25	0.25	0.25	)))
		(((	0.25	0.25	0.25	0.25	)
		(	0.25	0.25	0.25	0.25	)
		(	0.0	0.0	1.0	0.0	)
		(	0.25	0.25	0.25	0.25	))
		((	1.0	0.0	0.0	0.0	)
		(	0.25	0.25	0.25	0.25	)
		(	0.0	0.0	1.0	0.0	)
		(	0.25	0.25	0.25	0.25	))
		((	0.25	0.25	0.25	0.25	)
		(	0.25	0.25	0.25	0.25	)
		(	0.0	0.0	1.0	0.0	)
		(	0.0	0.0	0.0	1.0	))
		((	0.0	0.0	1.0	0.0	)
		(	0.25	0.25	0.25	0.25	)
		(	0.0	0.0	1.0	0.0	)
		(	0.25	0.25	0.25	0.25	)))
		(((	0.25	0.25	0.25	0.25	)
		(	0.25	0.25	0.25	0.25	)
		(	0.25	0.25	0.25	0.25	)
		(	0.25	0.25	0.25	0.25	))
		((	0.25	0.25	0.25	0.25	)
		(	0.25	0.25	0.25	0.25	)
		(	0.25	0.25	0.25	0.25	)
		(	0.25	0.25	0.25	0.25	))
		((	0.25	0.25	0.25	0.25	)
		(	0.25	0.25	0.25	0.25	)
		(	0.0	0.0	1.0	0.0	)
		(	0.0	0.0	0.0	1.0	))
		((	0.0	0.0	1.0	0.0	)
		(	0.25	0.25	0.25	0.25	)
		(	0.0	0.0	1.0	0.0	)
		(	0.25	0.25	0.25	0.25	)))
		(((	0.25	0.25	0.25	0.25	)
		(	0.25	0.25	0.25	0.25	)
		(	0.25	0.25	0.25	0.25	)
		(	0.25	0.25	0.25	0.25	))
		((	0.25	0.25	0.25	0.25	)
		(	0.25	0.25	0.25	0.25	)
		(	0.25	0.25	0.25	0.25	)
		(	0.25	0.25	0.25	0.25	))
		((	0.5	0.5	0.0	0.0	)
		(	0.5	0.5	0.0	0.0	)
		(	0.5	0.5	0.0	0.0	)
		(	0.5	0.5	0.0	0.0	))
		((	0.25	0.25	0.25	0.25	)
		(	0.25	0.25	0.25	0.25	)
		(	0.0	0.0	1.0	0.0	)
		(	0.0	0.0	0.0	1.0	)))
		(((	0.25	0.25	0.25	0.25	)
		(	0.25	0.25	0.25	0.25	)
		(	0.25	0.25	0.25	0.25	)
		(	0.25	0.25	0.25	0.25	))
		((	0.25	0.25	0.25	0.25	)
		(	0.25	0.25	0.25	0.25	)
		(	0.25	0.25	0.25	0.25	)
		(	0.25	0.25	0.25	0.25	))
		((	0.25	0.25	0.25	0.25	)
		(	0.25	0.25	0.25	0.25	)
		(	0.0	0.0	1.0	0.0	)
		(	0.25	0.25	0.25	0.25	))
		((	0.25	0.25	0.25	0.25	)
		(	0.25	0.25	0.25	0.25	)
		(	0.25	0.25	0.25	0.25	)
		(	0.25	0.25	0.25	0.25	)))
		(((	0.25	0.25	0.25	0.25	)
		(	0.25	0.25	0.25	0.25	)
		(	0.0	0.0	1.0	0.0	)
		(	0.25	0.25	0.25	0.25	))
		((	0.25	0.25	0.25	0.25	)
		(	0.25	0.25	0.25	0.25	)
		(	0.24	0.0	0.76	0.0	)
		(	0.25	0.25	0.25	0.25	))
		((	0.25	0.25	0.25	0.25	)
		(	0.0	0.0	0.0	1.0	)
		(	0.0	0.0	1.0	0.0	)
		(	0.0	1.503307276007216E-4	0.0	0.9998496692723993	))
		((	0.0	0.0	1.0	0.0	)
		(	0.25	0.25	0.25	0.25	)
		(	0.0	0.0	1.0	0.0	)
		(	0.25	0.25	0.25	0.25	))));
}
potential ( protocol | classification )
{
	data = ((	1.0	0.0	0.0	)
		(	0.013240403791196365	0.7896235531158124	0.1971360430929912	)
		(	0.0	1.0	0.0	)
		(	0.0	1.0	0.0	));
}
potential ( rerror_rate | )
{
	data = (	9.333869432500739E-4	2.7488758328683493E-4	0.9458204778941149	0.052971247579348145	);
}
potential ( count | same_srv_rate srv_count )
{
	data = (((	0.02216940621941721	0.006650821865825161	0.006131538476901843	0.00461363318620304	0.003934570292995666	0.0027761688869360284	0.003575066408356468	0.004194211987457309	0.005692144840120633	0.0	0.9402624378357867	)
		(	3.938791184985328E-5	0.0	0.001004391752171263	0.001969395592492651	0.0023829686669161187	0.0031313389920633356	0.002895011520964216	0.0036827697579612816	0.004391752171258641	0.0	0.9805029836343226	)
		(	0.0	0.0	0.0	0.0	0.0	4.351610095735422E-4	0.0013054830287206266	0.0010879025239338555	0.0010879025239338555	0.0	0.9960835509138382	)
		(	0.0	0.0	0.0	0.0	0.0	0.0	0.0	0.0	0.0	0.0	1.0	)
		(	0.09090909090909091	0.09090909090909091	0.09090909090909091	0.09090909090909091	0.09090909090909091	0.09090909090909094	0.09090909090909083	0.09090909090909091	0.09090909090909091	0.09090909090909091	0.09090909090909091	)
		(	0.09090909090909091	0.09090909090909091	0.09090909090909091	0.09090909090909091	0.09090909090909091	0.09090909090909091	0.09090909090909094	0.09090909090909083	0.09090909090909091	0.09090909090909091	0.09090909090909091	)
		(	0.09090909090909091	0.09090909090909091	0.09090909090909091	0.09090909090909091	0.09090909090909091	0.09090909090909091	0.09090909090909091	0.09090909090909083	0.09090909090909083	0.09090909090909091	0.09090909090909091	)
		(	0.09090909090909091	0.09090909090909091	0.09090909090909091	0.09090909090909091	0.09090909090909094	0.09090909090909091	0.09090909090909094	0.09090909090909091	0.09090909090909083	0.09090909090909091	0.09090909090909091	)
		(	0.09090909090909091	0.09090909090909091	0.09090909090909091	0.09090909090909091	0.09090909090909091	0.09090909090909091	0.09090909090909091	0.09090909090909091	0.09090909090909091	0.09090909090909072	0.09090909090909091	)
		(	0.09090909090909091	0.09090909090909091	0.09090909090909091	0.09090909090909091	0.09090909090909083	0.09090909090909094	0.09090909090909094	0.09090909090909094	0.09090909090909083	0.09090909090909094	0.09090909090909091	)
		(	0.09090909090909091	0.09090909090909091	0.09090909090909091	0.09090909090909091	0.09090909090909091	0.09090909090909091	0.09090909090909091	0.09090909090909091	0.09090909090909091	0.09090909090909091	0.09090909090909091	))
		((	0.950354609929078	0.04964539007092199	0.0	0.0	0.0	0.0	0.0	0.0	0.0	0.0	0.0	)
		(	0.11764705882352941	0.3464052287581699	0.48366013071895425	0.05228758169934641	0.0	0.0	0.0	0.0	0.0	0.0	0.0	)
		(	0.3	0.0	0.5	0.2	0.0	0.0	0.0	0.0	0.0	0.0	0.0	)
		(	0.0	0.16666666666666666	0.0	0.6666666666666666	0.16666666666666666	0.0	0.0	0.0	0.0	0.0	0.0	)
		(	0.0	0.0	0.0	0.0	0.8333333333333334	0.16666666666666666	0.0	0.0	0.0	0.0	0.0	)
		(	0.0	0.0	0.0	0.0	0.0	0.8571428571428571	0.14285714285714285	0.0	0.0	0.0	0.0	)
		(	0.2222222222222222	0.1111111111111111	0.0	0.0	0.0	0.0	0.6666666666666666	0.0	0.0	0.0	0.0	)
		(	0.0	0.1	0.1	0.0	0.0	0.0	0.0	0.8	0.0	0.0	0.0	)
		(	0.2222222222222222	0.0	0.1111111111111111	0.1111111111111111	0.0	0.0	0.0	0.0	0.5555555555555556	0.0	0.0	)
		(	0.09090909090909091	0.09090909090909091	0.09090909090909091	0.09090909090909091	0.09090909090909091	0.09090909090909091	0.09090909090909091	0.09090909090909091	0.09090909090909091	0.09090909090909091	0.09090909090909091	)
		(	0.0	0.016129032258064516	0.024193548387096774	0.04032258064516129	0.06451612903225806	0.08870967741935484	0.0967741935483871	0.10483870967741936	0.03225806451612903	0.0	0.532258064516129	))
		((	0.0	0.0	0.0	0.0	0.0	0.0	0.0	0.0	0.0	0.0	1.0	)
		(	0.09090909090909091	0.09090909090909091	0.09090909090909091	0.09090909090909091	0.09090909090909091	0.09090909090909091	0.09090909090909091	0.09090909090909091	0.09090909090909091	0.09090909090909091	0.09090909090909091	)
		(	0.09090909090909091	0.09090909090909091	0.09090909090909091	0.09090909090909091	0.09090909090909091	0.09090909090909091	0.09090909090909091	0.09090909090909091	0.09090909090909091	0.09090909090909091	0.09090909090909091	)
		(	0.09090909090909091	0.09090909090909091	0.09090909090909091	0.09090909090909091	0.09090909090909091	0.09090909090909091	0.09090909090909091	0.09090909090909091	0.09090909090909091	0.09090909090909091	0.09090909090909091	)
		(	0.09090909090909091	0.09090909090909091	0.09090909090909091	0.09090909090909091	0.09090909090909091	0.09090909090909091	0.09090909090909091	0.09090909090909091	0.09090909090909091	0.09090909090909091	0.09090909090909091	)
		(	0.09090909090909091	0.09090909090909091	0.09090909090909091	0.09090909090909091	0.09090909090909091	0.09090909090909091	0.09090909090909091	0.09090909090909091	0.09090909090909091	0.09090909090909091	0.09090909090909091	)
		(	0.09090909090909091	0.09090909090909091	0.09090909090909091	0.09090909090909091	0.09090909090909091	0.09090909090909091	0.09090909090909091	0.09090909090909091	0.09090909090909091	0.09090909090909091	0.09090909090909091	)
		(	0.09090909090909091	0.09090909090909091	0.09090909090909091	0.09090909090909091	0.09090909090909091	0.09090909090909091	0.09090909090909091	0.09090909090909091	0.09090909090909091	0.09090909090909091	0.09090909090909091	)
		(	0.09090909090909091	0.09090909090909091	0.09090909090909091	0.09090909090909091	0.09090909090909091	0.09090909090909091	0.09090909090909091	0.09090909090909091	0.09090909090909091	0.09090909090909091	0.09090909090909091	)
		(	0.0	0.0	0.0	0.0	0.0	0.0	0.0	0.0	0.0	1.0	0.0	)
		(	0.09090909090909091	0.09090909090909091	0.09090909090909091	0.09090909090909091	0.09090909090909091	0.09090909090909091	0.09090909090909091	0.09090909090909091	0.09090909090909091	0.09090909090909091	0.09090909090909091	))
		((	1.0	0.0	0.0	0.0	0.0	0.0	0.0	0.0	0.0	0.0	0.0	)
		(	0.2930864197530864	0.7069135802469135	0.0	0.0	0.0	0.0	0.0	0.0	0.0	0.0	0.0	)
		(	0.21143674052894926	0.24231593995711223	0.5462473195139386	0.0	0.0	0.0	0.0	0.0	0.0	0.0	0.0	)
		(	0.18386491557223264	0.19230769230769232	0.18292682926829268	0.44090056285178236	0.0	0.0	0.0	0.0	0.0	0.0	0.0	)
		(	0.1861402095084609	0.20467365028203063	0.18936341659951653	0.1514907332796132	0.26833199033037874	0.0	0.0	0.0	0.0	0.0	0.0	)
		(	0.15955473098330242	0.23562152133580705	0.19480519480519481	0.11317254174397032	0.07050092764378478	0.22634508348794063	0.0	0.0	0.0	0.0	0.0	)
		(	0.11026615969581749	0.1482889733840304	0.12547528517110265	0.1634980988593156	0.06463878326996197	0.049429657794676805	0.33840304182509506	0.0	0.0	0.0	0.0	)
		(	0.08588957055214724	0.11042944785276074	0.11042944785276074	0.07975460122699386	0.06748466257668712	0.024539877300613498	0.024539877300613498	0.49693251533742333	0.0	0.0	0.0	)
		(	0.3409090909090909	0.11363636363636363	0.09090909090909091	0.045454545454545456	0.03787878787878788	0.015151515151515152	0.0	0.022727272727272728	0.3333333333333333	0.0	0.0	)
		(	0.09090909090909091	0.09090909090909091	0.09090909090909091	0.09090909090909091	0.09090909090909091	0.09090909090909091	0.09090909090909091	0.09090909090909091	0.09090909090909091	0.09090909090909091	0.09090909090909091	)
		(	3.9034499400288144E-5	1.7388095187401083E-4	2.3775558725630053E-4	2.9453304092944693E-4	3.1937317691144846E-4	3.3711613118430673E-4	3.4066472203887836E-4	3.1582458605687683E-4	5.6777453673146395E-5	0.0	0.9978850398506753	)));
}
potential ( srv_count | dst_bytes srv_diff_host_rate )
{
	data = (((	0.4959785522788204	0.40482573726541554	0.08310991957104558	0.010723860589812333	0.002680965147453083	0.002680965147453083	0.0	0.0	0.0	0.0	0.0	)
		(	1.0	0.0	0.0	0.0	0.0	0.0	0.0	0.0	0.0	0.0	0.0	)
		(	0.15706006098399858	0.12889936139397715	0.011764058462592895	3.0016734329388633E-5	3.0016734329388633E-5	2.751533980193958E-5	3.0016734329388633E-5	3.2518128856837685E-5	2.0011156219592423E-5	0.0	0.7021064243315649	)
		(	1.0	0.0	0.0	0.0	0.0	0.0	0.0	0.0	0.0	0.0	0.0	))
		((	0.24124427039295085	0.3492946464331805	0.18810911841929592	0.0997730408081527	0.04485781674157803	0.019714298429086376	0.008944862266921809	0.004672689243914377	0.004628187441591384	0.0	0.03876106982332784	)
		(	0.9939701682005713	0.006029831799428753	0.0	0.0	0.0	0.0	0.0	0.0	0.0	0.0	0.0	)
		(	0.7785141970978104	0.1399401838791862	0.04873906140383266	0.017483292102056642	0.004172359044419008	0.0016800206771775653	0.001089244175312927	0.001015397112579847	5.353912048148285E-4	1.846176568326995E-5	0.006812391537126611	)
		(	1.0	0.0	0.0	0.0	0.0	0.0	0.0	0.0	0.0	0.0	0.0	)));
}
potential ( src_bytes | srv_diff_host_rate )
{
	data = ((	0.004289966730870251	0.9957100332691298	)
		(	0.027210884353741496	0.9727891156462585	)
		(	0.24537001341578127	0.7546299865842188	)
		(	0.16054212658935307	0.8394578734106469	));
}
potential ( diff_srv_rate | classification same_srv_rate )
{
	data = (((	0.25	0.25	0.25	0.25	)
		(	0.25	0.25	0.25	0.25	)
		(	0.25	0.25	0.25	0.25	)
		(	0.0	0.0	1.0	0.0	))
		((	0.13821138211382114	0.8485772357723578	0.0	0.013211382113821139	)
		(	0.2215435868961688	0.35313714602998336	0.0	0.4253192670738479	)
		(	0.3333333333333333	0.0	0.6666666666666666	0.0	)
		(	6.455709598899E-4	0.0	0.9993544290401101	0.0	))
		((	0.9989948209345293	8.520089221608629E-4	0.0	1.5317014330981532E-4	)
		(	0.7640449438202247	0.1573033707865169	0.0	0.07865168539325842	)
		(	1.0	0.0	0.0	0.0	)
		(	0.0	0.0	1.0	0.0	))
		((	0.25	0.25	0.25	0.25	)
		(	0.4	0.6	0.0	0.0	)
		(	0.25	0.25	0.25	0.25	)
		(	0.0	0.0	1.0	0.0	)));
}
potential ( same_srv_rate | dst_bytes )
{
	data = ((	0.26108253126033415	0.0024690007384624564	0.005616790199583776	0.7308316778016196	)
		(	0.005147446796036818	0.013765609427214633	3.5176174004836E-5	0.9810517676027437	));
}
potential ( serror_rate | rerror_rate )
{
	data = ((	0.02197802197802198	0.11648351648351649	0.8615384615384616	0.0	)
		(	0.0	0.0074626865671642	0.9925373134328358	0.0	)
		(	0.0013881026588672648	8.892532658368868E-4	0.8103222783970017	0.18740036567829418	)
		(	0.0	0.0	1.0	0.0	));
}
potential ( srv_serror_rate | serror_rate )
{
	data = ((	0.9430769230769231	0.0030769230769230774	0.05230769230769231	0.0015384615384615387	)
		(	0.05603448275862069	0.11637931034482758	0.015086206896551725	0.8125	)
		(	0.0012551412033853808	3.5003937942979E-5	0.9987098548586716	0.0	)
		(	1.041630498941009E-4	4.6294688841822624E-4	0.0	0.9994328900616877	));
}
